19 12
4#1##1#2,3,4,5,6 0.516694128513 -1.15356576443 0.740593791008 -0.0620481483638 1.10534954071 -0.213871285319 0.206618472934 -1.55642485619 -1.29174792767 -0.932314455509 -1.21745538712 1.44819736481
3#1##1#2,3,4,5,6 1.20639765263 -0.0752394720912 -0.804831087589 -0.846526563168 -1.53787279129 1.50255656242 -1.60526239872 -0.347528010607 -0.0299895983189 0.358509421349 -0.352209448814 -1.26520001888
1#2,3,4,5,6 -0.506524443626 2.12432360649 -1.31218826771 0.852976620197 0.120490550995 -0.276870906353 -1.11559128761 0.588782608509 0.393679827452 1.01430952549 -1.34582042694 0.322259455919
2#1##1#2,3,4,5,6 -0.319933891296 1.24062085152 0.03487964347 -0.417395800352 0.0810893848538 0.212955370545 0.247035816312 0.982757925987 -0.806297123432 1.04821515083 -1.01536071301 2.51485085487
1#2,3,4,5,6##2#1,,3#1,,4#1,,5#1,,6#1 -1.34570300579 0.0411631651223 1.2111287117 0.330393195152 0.782872796059 -1.11947965622 -0.854914188385 -1.46888172626 -0.817409038544 0.324599325657 1.32970416546 1.14679646492
5#1##1#2,3,4,5,6 1.29077219963 -1.42888712883 -0.0336208641529 0.609826922417 -1.32206726074 -1.14224684238 0.58308750391 0.222769603133 -0.979620456696 -1.57073163986 -0.753893613815 0.694083869457
5#1 -0.712184846401 -0.789788901806 0.990931928158 0.0528752021492 -1.43858385086 -1.16263175011 -0.0668394640088 0.502331376076 -0.554584681988 -1.46832120419 -1.33201158047 -1.40301799774
2#1 1.27466821671 -1.06629359722 -0.680280685425 -1.10581111908 -0.757622420788 0.454954445362 -0.499363690615 0.729413092136 1.47932636738 -1.19808471203 -1.48688960075 0.394463837147
4#1 -1.50879633427 -1.85851585865 -0.0579568855464 0.712343633175 -0.157984688878 0.757051706314 -1.04368829727 -0.60775077343 0.422805547714 0.967769920826 0.375322341919 1.56387829781
1 2.06719446182 0.300848722458 0.799765110016 1.14848840237 0.194091677666 1.29989778996 1.05587995052 -0.222281858325 1.29581022263 0.85582113266 0.564053535461 -0.236938640475
6#1 0.184653520584 -1.91136026382 0.572964847088 0.146547779441 -0.00432278495282 1.08452963829 -0.571750044823 -1.13582396507 -1.50877153873 -0.15478387475 -1.21284532547 -1.18248820305
3 -0.546321332455 0.537744522095 1.2558760643 0.22738955915 -1.33673214912 -0.903259694576 -1.16559946537 1.29776072502 0.453519016504 -1.72192299366 0.144100874662 -0.972848713398
2 0.580860555172 -0.54216837883 -1.55516338348 -0.559761941433 0.025464868173 -1.45134031773 -1.17485272884 0.994723021984 0.469952553511 0.752769827843 -1.45967197418 -1.11437821388
5 1.84351360798 0.279644012451 0.63573551178 1.50340771675 1.33672225475 -0.0115185659379 -1.27285194397 0.0950951725245 -1.14917016029 -0.764646351337 -0.622415840626 -0.387337565422
4 -0.134423717856 -2.05402541161 -0.364846438169 2.08749604225 -0.229890853167 0.247261226177 -1.39018177986 -0.744509220123 -0.0737205892801 -0.549703836441 0.114998050034 0.591974675655
6 -1.18138718605 0.0152147114277 -1.77405583858 0.512769460678 0.419704765081 0.998298823833 0.774705767632 1.79539871216 -0.00709844334051 -0.832774996758 -1.22178924084 -0.105712659657
3#1 0.313714504242 -0.159654542804 1.23457586765 1.24693417549 -0.233487784863 1.16408991814 0.143219918013 -1.32830500603 1.25206208229 1.02367997169 -1.1068893671 -1.32731235027
6#1##1#2,3,4,5,6 -0.928749084473 -1.52724659443 0.943512141705 0.56138086319 0.998399019241 0.31729131937 -1.23848748207 0.690190255642 -0.783773064613 -1.21166682243 1.36178815365 0.744974017143
UNK 1.42056179047 0.551025569439 0.0280395653099 0.535597622395 0.651936590672 0.474409371614 1.19346678257 1.00909352303 1.73212718964 -0.613252818584 0.40331196785 -1.66102409363
