19 30
4#1##1#2,3,4,5,6 0.733240962029 0.758243858814 0.654955208302 -3.07608890533 -0.739972651005 -0.63570612669 0.0315236374736 -0.426392912865 1.10955536366 0.860881507397 0.325506031513 1.70666658878 1.30493962765 0.964628696442 -1.24587762356 -1.26364278793 -0.547591924667 0.567564487457 -0.180096074939 0.205198198557 0.288977056742 -0.426651716232 -1.99465739727 -0.57448631525 0.793025314808 0.511234521866 -0.333722084761 0.855304181576 0.179177477956 0.228783637285
3#1##1#2,3,4,5,6 0.224263414741 0.863251984119 1.4890588522 -0.138787865639 -0.87580370903 1.54164385796 1.20150601864 -1.31884968281 -0.406259953976 -2.05133533478 -0.483521044254 -0.964437544346 0.712362170219 0.734691023827 -1.65308439732 -1.4455486536 -0.515541374683 -0.467194586992 -0.662493526936 0.883940041065 0.813699483871 -0.257786780596 1.38774847984 -1.39008843899 1.00871086121 0.114410065114 0.569598793983 -0.38713568449 -0.989797651768 -0.677585721016
1#2,3,4,5,6 1.40732288361 2.11547684669 0.703894019127 -2.12122750282 0.321516543627 -0.227182283998 0.166542321444 -0.700415194035 -0.849935948849 -1.9815069437 -0.818025112152 -1.15365827084 -0.394841909409 1.19252467155 0.257443219423 -0.477994859219 0.642309129238 -0.598362386227 0.431202471256 -0.432525545359 -1.53303337097 0.428348511457 -0.742631912231 -0.401868611574 0.702458262444 -0.550387322903 0.973730325699 -0.27719154954 0.237606942654 -1.75672793388
2#1##1#2,3,4,5,6 0.794243574142 2.56787204742 -1.41389322281 -1.86140394211 1.63049614429 -0.443015605211 0.136679634452 -0.0922124683857 0.629541039467 -0.0339034497738 -1.11838948727 0.503616571426 0.641249060631 -0.640091001987 -0.454437613487 -1.02031970024 1.842212677 -0.510375082493 0.472732633352 0.604063153267 0.456921845675 0.996610641479 1.46458482742 -0.147409379482 0.0911400765181 -1.14375758171 0.329831391573 0.210172697902 -1.12222492695 -0.34461992979
1#2,3,4,5,6##2#1,,3#1,,4#1,,5#1,,6#1 -0.538047671318 2.2780880928 0.266924262047 -1.68223512173 0.148241862655 -0.223377496004 1.10225319862 -1.43486058712 0.586945652962 0.28554096818 -1.09529745579 0.443454623222 -1.08044075966 -1.1922454834 0.124465189874 -1.21250069141 -1.1991610527 -0.0982273370028 1.49273169041 -0.912497937679 0.257919251919 -0.34985023737 -0.550571024418 -1.15852558613 1.01179647446 -1.15428161621 0.296805053949 0.668487608433 -1.23710596561 1.27000629902
5#1##1#2,3,4,5,6 0.406232506037 0.271171450615 -1.15214645863 0.675372719765 1.76312434673 -0.276367515326 0.250375181437 0.882727146149 0.685988605022 -1.08998382092 -0.915162503719 1.1728605032 0.0632225349545 0.0769632160664 -0.00117289857008 -0.846346795559 0.0349098071456 1.93948531151 1.72450220585 -1.19196212292 -1.30075359344 -0.715403139591 1.59804272652 -0.207597255707 1.59088563919 -1.21181178093 0.564707279205 0.237735599279 0.935612022877 -1.06991040707
5#1 -2.07054305077 0.907427549362 -0.979156315327 -0.0493728332222 -0.248679608107 -0.266876995564 0.659416556358 -1.72084927559 -0.509801983833 -0.00233757589012 -1.20373892784 -0.422257751226 0.406459093094 1.6276563406 0.182166591287 -0.167740017176 1.43589365482 -0.759357333183 -1.57445168495 -0.953978121281 0.027722094208 1.60758984089 0.51444196701 -0.514011025429 0.105474151671 -0.736424982548 0.459349989891 -2.17416119576 -0.504696846008 -0.865180075169
2#1 0.834684371948 1.61576139927 0.879830479622 -0.864784359932 -0.213149383664 -0.179690629244 1.04737496376 -1.07270979881 1.37682127953 -1.35902190208 -1.11027789116 0.357785761356 1.39630806446 1.42663037777 1.25802648067 0.247432544827 -0.174553245306 0.283650040627 0.349324285984 -0.327196985483 -1.28467595577 0.893472254276 -1.28058731556 0.0833927541971 1.42279624939 -2.13499450684 0.148748531938 -1.02442419529 0.134056851268 0.0740757212043
4#1 1.40716791153 -0.538051962852 -0.728674709797 -2.16376638412 0.482489615679 -0.477789640427 1.53609418869 -0.0632515028119 -0.529018044472 0.34365940094 -0.346262931824 -1.23115432262 -0.480598986149 0.464909732342 0.727654933929 -0.0716227516532 -1.54062235355 -1.07918834686 0.0283525027335 -1.50952160358 -1.25330221653 0.724065303802 -0.797724843025 -1.62729394436 -0.380574017763 -1.21994864941 1.16842186451 0.141993910074 -1.56766068935 0.0661658719182
1 -0.589948892593 0.944927275181 -0.838406920433 -1.32519948483 -0.517336308956 0.491993099451 -0.7840051651 -1.50926482677 0.236226886511 -1.59871697426 0.75751888752 -0.97911220789 -0.589365243912 0.182729586959 -0.430383622646 0.871860563755 -0.387750476599 -1.05667376518 0.584765911102 -1.41313171387 -0.945385158062 0.521773040295 -1.57233846188 -0.839385151863 1.97437298298 -1.50610172749 -0.827988445759 0.469418346882 1.14918744564 1.04201316833
6#1 1.87678217888 1.25485551357 -0.348651945591 -1.18890357018 0.638448596001 1.79147577286 0.666459918022 -1.50915431976 -0.544358968735 0.516439914703 1.48182737827 -0.36757928133 -0.541145920753 -0.0876305550337 0.988217175007 -1.36024773121 0.528764009476 1.54952931404 -0.190406531096 -1.62670779228 0.75054448843 -0.842995762825 0.961601436138 -1.19230318069 0.168719559908 0.261404931545 -0.853812992573 0.181723326445 0.804024040699 -0.72067129612
3 1.70240986347 1.20086693764 0.894364178181 -1.67764270306 0.392545044422 1.31364297867 -0.834661722183 -0.626427292824 1.03994870186 1.28556513786 -1.2510740757 0.277256578207 -0.213425382972 1.39039063454 -0.872672736645 -0.296248346567 -0.374658316374 -0.926310479641 0.635878503323 0.0508815161884 -1.43787074089 2.29200100899 -0.820765197277 -0.450487017632 -0.297575473785 0.0839793011546 -0.966808915138 -0.763769030571 -0.301179051399 -0.751783668995
2 1.06815242767 2.15707159042 0.946155369282 -1.33241796494 1.48653054237 1.79969620705 1.23820209503 -0.405228614807 0.112458765507 0.291974723339 0.51656550169 -0.152992680669 1.43329799175 -0.495354264975 1.63154757023 0.317647844553 -0.866112887859 -0.350436270237 0.56602793932 -0.0822403132915 0.692877471447 0.775436282158 1.04172813892 1.20871782303 0.733328640461 -0.024715686217 1.37281548977 -0.0548974201083 -0.601662397385 1.15025997162
5 1.76037442684 0.447760850191 0.598932743073 -1.9312530756 -0.753197193146 -1.27915465832 -0.473081022501 -0.445973157883 1.46170783043 0.443154275417 0.461329936981 1.61579537392 -0.569583654404 -0.591551780701 0.0893050581217 -0.136066645384 -0.561484694481 0.0470497943461 -1.95715200901 -0.26976031065 0.670952141285 -0.652192056179 1.59671449661 -1.76433396339 0.161255434155 -1.00811564922 0.148009940982 0.0764979720116 -1.51648545265 0.00846512243152
4 1.11950910091 0.967633426189 -1.05856764317 -1.47872376442 0.0341100431979 -1.59888744354 0.463965445757 -1.15208733082 0.233835294843 -0.431367516518 1.19947361946 1.23889029026 0.0152835203335 0.669230461121 -0.945104241371 0.81999874115 -1.20393157005 -0.881627082825 -1.47873020172 -1.41681873798 0.0463145747781 0.719100117683 0.30029463768 -1.70273864269 1.38195204735 0.663223326206 -1.16624283791 1.01844501495 0.625768840313 0.326922088861
6 -0.512676477432 2.01874303818 -1.21930992603 0.404397368431 -0.722990453243 -1.3952627182 -1.52182352543 -0.0104321949184 0.269612878561 -0.324138015509 2.17734956741 -0.213504076004 0.834896504879 -0.588776648045 -0.389153718948 0.656985521317 -0.569021940231 -0.744090378284 -1.38584423065 -1.60938286781 -0.5370246768 -0.523778259754 0.0517938286066 -0.115058086812 1.11449480057 -0.828607678413 -1.69412899017 -0.813406944275 1.06850612164 -0.257281720638
3#1 1.23275947571 0.959183633327 -1.5763310194 0.868726491928 0.809431552887 -1.26155996323 1.48494923115 0.125558286905 -0.931862711906 -1.98364329338 0.620545685291 -1.3858435154 -0.836288928986 0.0453568845987 0.403558135033 -1.02233827114 0.0854378342628 -0.123023577034 -1.00071799755 -0.905620098114 0.581511199474 -1.0925719738 0.867446959019 -0.322282940149 0.0490552484989 0.391397863626 1.42108607292 -1.22581338882 1.60771691799 -0.583281338215
6#1##1#2,3,4,5,6 0.683359265327 -0.399045228958 -0.610674262047 -1.56818914413 -0.423099517822 -0.938082277775 -0.501639127731 0.447410702705 -1.19897377491 -0.446795582771 -1.5419896841 0.966309309006 0.18620608747 -0.34244376421 -0.0778099521995 0.0241228118539 -0.415794223547 0.614230751991 -1.55372834206 0.421744972467 -0.942463517189 1.5883988142 0.950394332409 -0.0887891948223 2.10391330719 -0.260051101446 -2.06886339188 1.22485232353 -1.21931481361 -0.835366427898
UNK 1.50046372414 0.855792164803 0.483471602201 -0.329794287682 0.43307480216 0.293802648783 -1.53865504265 -0.428759515285 1.63311767578 -1.53903734684 -0.262602120638 -0.385222107172 -1.5033506155 -0.610990703106 -0.777985572815 0.0850421190262 -1.24861264229 1.2373636961 -0.198073163629 -0.717245042324 0.619154155254 -0.192013442516 0.308215737343 0.334387630224 1.47010159492 -1.68678534031 0.595514833927 1.67394804955 1.37780821323 1.00859856606
