19 30
A 0.741988062859 0.636514246464 -1.25838196278 0.278778523207 -0.202418446541 1.08608388901 -0.774329125881 1.51255548 0.487414956093 -0.585769474506 0.608061611652 0.750710308552 -1.42492318153 -0.913066029549 1.50575232506 -1.14184808731 0.0163207259029 -2.30761122704 0.993155896664 1.66140294075 1.85134243965 0.321196615696 -0.386836141348 0.155724719167 0.849358856678 0.195945769548 1.01790094376 -0.0792467668653 0.123278573155 0.855575323105
C#A##A#B,C,D,E,F -0.129253774881 -0.632103383541 -0.0549205206335 -0.564346671104 0.201029807329 -0.166029155254 0.959022223949 0.625231266022 -0.00871723145247 0.69260931015 1.62684631348 -0.987465798855 -0.31927216053 1.95700788498 0.0568594075739 0.0146370725706 -0.443919926882 -1.27839696407 2.39336061478 -1.33283281326 1.29864168167 0.412778794765 0.108534954488 1.05884194374 1.62903702259 -0.661771297455 1.29201686382 1.27377378941 -1.02341198921 -0.300351291895
C 1.31698918343 -0.317305892706 1.32600367069 1.6903873682 0.202236518264 0.715280294418 -1.34930574894 -0.251363128424 1.42988705635 -1.36652290821 -0.223800897598 -0.80565738678 -0.119180433452 0.537923872471 -0.556507885456 0.711181282997 -1.93021631241 -1.04209280014 1.62777304649 1.37550735474 -0.688979685307 -1.52680742741 0.415231376886 -0.828884422779 0.132772877812 -0.292437285185 0.241277515888 -0.535093963146 -1.19492352009 0.698902487755
B -0.892296552658 -1.30863547325 -0.240006104112 0.453655332327 -0.206556543708 1.29097640514 -1.38412511349 -0.844292938709 0.843759298325 -0.970238626003 0.115590572357 0.563984870911 1.28965938091 -0.98085474968 -0.316438943148 -0.615840911865 -0.575627684593 -1.18294048309 -0.916164278984 0.022730268538 -1.71782052517 -0.866173505783 1.16693651676 -2.1264257431 1.06780219078 -1.02494716644 1.2863162756 0.525436758995 1.0886387825 -0.582091510296
E -1.00092422962 -1.6566054821 -0.149431198835 0.882766008377 -1.26435768604 1.12172365189 0.876973450184 1.35016357899 -0.394980460405 0.0542672127485 1.24879074097 0.842281460762 -0.369801908731 1.62097263336 0.626042425632 1.72399806976 -0.435470640659 -0.0209501069039 -1.10162341595 0.998239576817 1.29965853691 -0.676913142204 0.989364802837 -1.05506837368 1.27027249336 -1.0197173357 -1.08580362797 0.370834112167 -0.674213647842 0.61895608902
A#B,C,D,E,F 0.978693664074 -1.89924442768 -1.22428977489 -0.209267511964 1.75119829178 0.854034841061 -0.120542041957 -1.84921526909 -0.377417862415 1.87732863426 -0.740841925144 0.652911543846 -1.13787388802 0.38223272562 0.780819356441 0.506252288818 -0.715707421303 -0.990397393703 -0.727405905724 1.15144884586 -0.511965274811 -0.617467582226 -1.44766592979 -0.888086020947 0.877790033817 0.377137929201 -1.07432281971 -0.331230252981 0.684757828712 -0.438139140606
B#A##A#B,C,D,E,F -1.02792489529 -0.810186862946 -1.76071226597 0.230270877481 -0.19707468152 1.51898705959 1.22297716141 1.44022762775 -0.468022912741 -1.21486365795 -0.442188352346 1.61804246902 0.671118021011 0.335161775351 -1.26061558723 -0.892838835716 -0.501125097275 0.694284319878 0.852096319199 1.40346372128 0.0845522210002 0.324382066727 -1.81941235065 -0.700942993164 0.567847430706 0.671651303768 -0.538191318512 0.829168379307 -1.45145833492 -0.748208940029
F -0.39370021224 -0.877525210381 -1.83895051479 -0.527069985867 -0.0253968797624 1.55716466904 -1.75094401836 0.776353657246 1.2212716341 1.00575721264 0.456255108118 1.19763946533 -0.273851066828 1.22053909302 1.17549967766 1.24324262142 0.29787582159 -0.945896446705 -0.759709715843 -1.00259184837 -1.56047582626 0.679094672203 1.46088564396 0.440991073847 -0.881638228893 -0.53140771389 0.157512322068 0.567629992962 0.317294478416 1.17714345455
D#A##A#B,C,D,E,F 1.41839993 -1.29773402214 1.27041041851 -0.122971922159 0.653525233269 -1.01445603371 0.319018810987 -1.30302143097 1.06579720974 1.00193142891 0.510421454906 0.325750052929 1.44251215458 -1.12732470036 -1.30693423748 0.364897549152 -0.190407156944 0.590062856674 -0.687018454075 -1.47481048107 1.08488595486 0.207234725356 -0.582165777683 -0.236245036125 -0.874590992928 0.892407596111 0.0865727365017 -1.26380503178 -1.29791343212 2.05500078201
A#B,C,D,E,F##B#A,,C#A,,D#A,,E#A,,F#A 1.68094420433 1.05396080017 0.323015153408 -0.324718564749 0.394196629524 1.20331597328 0.324718624353 -1.21243488789 -1.68159210682 1.34947288036 0.484143257141 -1.30595612526 -1.29536151886 -0.776984751225 1.13065803051 0.327815979719 -1.87153041363 -1.24577188492 0.987899184227 -1.02374792099 1.32263016701 0.522271633148 -0.685846507549 -0.171004921198 -1.14746451378 -0.72127866745 0.0979910418391 -0.539927065372 -0.33537825942 0.753597974777
E#A##A#B,C,D,E,F 1.48469793797 0.817305266857 -1.20478665829 1.02147364616 1.3803319931 -0.504227340221 -0.139328166842 0.130307033658 0.999355852604 0.255371063948 0.276433765888 1.29897034168 -0.0170269738883 -0.101819932461 -0.296107023954 1.07672667503 -0.390901327133 -0.778601944447 0.766662597656 -1.26537001133 0.048338368535 -2.68092489243 1.13895130157 -0.455365508795 0.00801237113774 1.32606184483 2.01990866661 -0.154489725828 0.909725308418 -0.138737633824
B#A -1.07440769672 0.698503553867 -0.361234605312 0.845694959164 -0.299437880516 2.38785123825 1.20169365406 -0.201612755656 -1.01414322853 1.82600688934 1.31330120564 0.19072458148 -0.664053797722 1.43704330921 0.0442996174097 -1.14961194992 -0.500961780548 1.17885124683 -0.300122410059 -0.27694234252 -0.346414148808 0.432615578175 -0.662638962269 -0.383175075054 -1.34183049202 1.23595964909 -1.13156628609 -1.18500256538 -0.537416994572 1.1314548254
D#A -1.65131664276 0.984593987465 0.526527643204 1.18796110153 -0.575594425201 1.3201675415 -0.741167366505 0.390099585056 0.0200470108539 -0.115691810846 -0.301122039557 1.93057215214 -0.508135557175 1.48526477814 -0.61450958252 -0.0420126058161 0.142677813768 -0.179003760219 1.36322760582 -0.441262036562 1.34432113171 -0.394364893436 -1.77364957333 -1.60336613655 1.02143061161 -0.053669590503 0.54900932312 -1.0498842001 -1.47747612 0.864160299301
F#A 0.0841893926263 -0.309464693069 1.71428859234 0.679472088814 -0.423127442598 0.924875319004 -1.47243285179 -1.19883275032 -1.00983655453 0.149279266596 2.50273799896 -0.396562665701 -1.86389195919 0.537341952324 0.838226616383 0.996230661869 -0.483545273542 0.417784482241 0.523891866207 0.838447630405 -1.18083894253 0.686092197895 0.281317651272 -0.401374936104 -0.126483023167 0.613482534885 1.1960682869 0.676233768463 -0.754966199398 1.61079847813
E#A 0.645112037659 0.0642605423927 -0.93514919281 0.340471535921 -1.05417537689 1.0015130043 -1.26692163944 -1.55834043026 1.08044612408 0.488259851933 0.179794728756 -0.338736951351 1.58423006535 2.07672905922 -1.09533846378 -0.986975550652 0.134839773178 -0.451704144478 0.381631046534 0.818375408649 1.45421671867 1.50365114212 0.980662226677 -0.135906472802 -0.200340420008 -1.73841881752 0.938693583012 0.743147373199 0.625026226044 0.782527685165
C#A 1.53411853313 -0.57417678833 1.06316888332 0.225458502769 0.177168473601 1.34904742241 0.51922750473 -0.535654127598 -1.24345040321 1.35814666748 1.13936424255 -0.74341326952 0.827286839485 -0.600084960461 -0.459511190653 0.997447729111 -0.354036688805 1.20066225529 -1.30319023132 -1.18972694874 -0.682601809502 1.5528973341 0.157179012895 -0.777353942394 -1.35434734821 -1.17117667198 0.543952167034 1.14673423767 -1.44847416878 1.06476485729
F#A##A#B,C,D,E,F -0.719424307346 -1.12627100945 0.418446987867 -1.06999969482 -1.33580040932 -1.17555749416 -0.437201619148 1.66618037224 -0.632544219494 1.84993875027 -0.902405917645 0.469394445419 -1.00211536884 0.0956265628338 -1.7841989994 -0.28296688199 -0.812044858932 0.515785634518 0.194081306458 0.657557964325 -1.67566072941 -0.850558876991 1.18258714676 0.550082445145 0.130674540997 1.60748362541 0.0964098572731 0.400619924068 -0.371446579695 -1.44559335709
D -1.69309675694 1.09153985977 -1.57282614708 -1.3798418045 -0.686432957649 1.98404085636 -0.494748175144 -0.0721131041646 1.29646253586 0.734028697014 1.3631632328 -0.767794430256 -0.665639102459 0.887001812458 -0.648825407028 -0.24187143147 1.18892633915 -0.284607350826 -0.286809772253 0.607466161251 0.763736248016 1.57198762894 -1.13219213486 0.377829104662 1.528901577 -0.147758677602 -1.21469986439 -0.31537771225 0.412950664759 -0.0155477980152
UNK -1.18186688423 0.389872223139 -1.2210804224 -1.12896442413 0.342446416616 -1.12167704105 -0.429310709238 -0.291323572397 0.832785844803 -0.222457781434 -1.3607558012 1.4321501255 -1.19987547398 0.988454461098 0.479214370251 1.41794586182 1.52097558975 -1.21859490871 0.346255064011 0.532147049904 1.15268445015 0.114364221692 1.29470074177 0.252859264612 0.904951989651 -1.77234649658 0.942319750786 1.16018211842 -0.558896660805 -0.973873257637
